digraph Tree {
node [shape=box] ;
0 [label="EDAD <= 52.5\nentropy = 0.333\nsamples = 1091695\nvalue = [67165, 1024530]\nclass = NO SOBREVIVE"] ;
1 [label="RESULTADO <= 1.5\nentropy = 0.148\nsamples = 805868\nvalue = [17084, 788784]\nclass = NO SOBREVIVE"] ;
0 -> 1 [labeldistance=2.5, labelangle=45, headlabel="True"] ;
2 [label="EDAD <= 39.5\nentropy = 0.24\nsamples = 327750\nvalue = [12940, 314810]\nclass = NO SOBREVIVE"] ;
1 -> 2 ;
3 [label="DIABETES <= 1.5\nentropy = 0.123\nsamples = 193339\nvalue = [3256, 190083]\nclass = NO SOBREVIVE"] ;
2 -> 3 ;
4 [label="HIPERTENSION <= 1.5\nentropy = 0.434\nsamples = 6338\nvalue = [566, 5772]\nclass = NO SOBREVIVE"] ;
3 -> 4 ;
5 [label="EDAD <= 35.5\nentropy = 0.556\nsamples = 1697\nvalue = [220, 1477]\nclass = NO SOBREVIVE"] ;
4 -> 5 ;
6 [label="ASMA <= 1.5\nentropy = 0.511\nsamples = 888\nvalue = [101, 787]\nclass = NO SOBREVIVE"] ;
5 -> 6 ;
7 [label="entropy = 0.222\nsamples = 56\nvalue = [2, 54]\nclass = NO SOBREVIVE"] ;
6 -> 7 ;
8 [label="entropy = 0.526\nsamples = 832\nvalue = [99, 733]\nclass = NO SOBREVIVE"] ;
6 -> 8 ;
9 [label="INMUSUPR <= 1.5\nentropy = 0.603\nsamples = 809\nvalue = [119, 690]\nclass = NO SOBREVIVE"] ;
5 -> 9 ;
10 [label="entropy = 0.918\nsamples = 21\nvalue = [7, 14]\nclass = NO SOBREVIVE"] ;
9 -> 10 ;
11 [label="entropy = 0.59\nsamples = 788\nvalue = [112, 676]\nclass = NO SOBREVIVE"] ;
9 -> 11 ;
12 [label="EDAD <= 32.5\nentropy = 0.383\nsamples = 4641\nvalue = [346, 4295]\nclass = NO SOBREVIVE"] ;
4 -> 12 ;
13 [label="EDAD <= 12.5\nentropy = 0.268\nsamples = 1685\nvalue = [77, 1608]\nclass = NO SOBREVIVE"] ;
12 -> 13 ;
14 [label="entropy = 0.469\nsamples = 40\nvalue = [4, 36]\nclass = NO SOBREVIVE"] ;
13 -> 14 ;
15 [label="entropy = 0.262\nsamples = 1645\nvalue = [73, 1572]\nclass = NO SOBREVIVE"] ;
13 -> 15 ;
16 [label="HIPERTENSION <= 50.0\nentropy = 0.44\nsamples = 2956\nvalue = [269, 2687]\nclass = NO SOBREVIVE"] ;
12 -> 16 ;
17 [label="entropy = 0.437\nsamples = 2951\nvalue = [266, 2685]\nclass = NO SOBREVIVE"] ;
16 -> 17 ;
18 [label="entropy = 0.971\nsamples = 5\nvalue = [3, 2]\nclass = SOBREVIVE"] ;
16 -> 18 ;
19 [label="HIPERTENSION <= 1.5\nentropy = 0.109\nsamples = 187001\nvalue = [2690, 184311]\nclass = NO SOBREVIVE"] ;
3 -> 19 ;
20 [label="INMUSUPR <= 1.5\nentropy = 0.299\nsamples = 6972\nvalue = [370, 6602]\nclass = NO SOBREVIVE"] ;
19 -> 20 ;
21 [label="EDAD <= 24.5\nentropy = 0.705\nsamples = 167\nvalue = [32, 135]\nclass = NO SOBREVIVE"] ;
20 -> 21 ;
22 [label="entropy = 0.25\nsamples = 24\nvalue = [1, 23]\nclass = NO SOBREVIVE"] ;
21 -> 22 ;
23 [label="entropy = 0.754\nsamples = 143\nvalue = [31, 112]\nclass = NO SOBREVIVE"] ;
21 -> 23 ;
24 [label="EPOC <= 1.5\nentropy = 0.285\nsamples = 6805\nvalue = [338, 6467]\nclass = NO SOBREVIVE"] ;
20 -> 24 ;
25 [label="entropy = 0.722\nsamples = 45\nvalue = [9, 36]\nclass = NO SOBREVIVE"] ;
24 -> 25 ;
26 [label="entropy = 0.281\nsamples = 6760\nvalue = [329, 6431]\nclass = NO SOBREVIVE"] ;
24 -> 26 ;
27 [label="EDAD <= 30.5\nentropy = 0.099\nsamples = 180029\nvalue = [2320, 177709]\nclass = NO SOBREVIVE"] ;
19 -> 27 ;
28 [label="INMUSUPR <= 1.5\nentropy = 0.07\nsamples = 93532\nvalue = [789, 92743]\nclass = NO SOBREVIVE"] ;
27 -> 28 ;
29 [label="entropy = 0.424\nsamples = 673\nvalue = [58, 615]\nclass = NO SOBREVIVE"] ;
28 -> 29 ;
30 [label="entropy = 0.066\nsamples = 92859\nvalue = [731, 92128]\nclass = NO SOBREVIVE"] ;
28 -> 30 ;
31 [label="EDAD <= 36.5\nentropy = 0.128\nsamples = 86497\nvalue = [1531, 84966]\nclass = NO SOBREVIVE"] ;
27 -> 31 ;
32 [label="entropy = 0.114\nsamples = 58152\nvalue = [885, 57267]\nclass = NO SOBREVIVE"] ;
31 -> 32 ;
33 [label="entropy = 0.157\nsamples = 28345\nvalue = [646, 27699]\nclass = NO SOBREVIVE"] ;
31 -> 33 ;
34 [label="DIABETES <= 1.5\nentropy = 0.374\nsamples = 134411\nvalue = [9684, 124727]\nclass = NO SOBREVIVE"] ;
2 -> 34 ;
35 [label="HIPERTENSION <= 1.5\nentropy = 0.624\nsamples = 20326\nvalue = [3166, 17160]\nclass = NO SOBREVIVE"] ;
34 -> 35 ;
36 [label="EDAD <= 45.5\nentropy = 0.711\nsamples = 8688\nvalue = [1689, 6999]\nclass = NO SOBREVIVE"] ;
35 -> 36 ;
37 [label="ASMA <= 50.0\nentropy = 0.64\nsamples = 2621\nvalue = [426, 2195]\nclass = NO SOBREVIVE"] ;
36 -> 37 ;
38 [label="entropy = 0.64\nsamples = 2620\nvalue = [425, 2195]\nclass = NO SOBREVIVE"] ;
37 -> 38 ;
39 [label="entropy = 0.0\nsamples = 1\nvalue = [1, 0]\nclass = SOBREVIVE"] ;
37 -> 39 ;
40 [label="INMUSUPR <= 1.5\nentropy = 0.738\nsamples = 6067\nvalue = [1263, 4804]\nclass = NO SOBREVIVE"] ;
36 -> 40 ;
41 [label="entropy = 0.902\nsamples = 154\nvalue = [49, 105]\nclass = NO SOBREVIVE"] ;
40 -> 41 ;
42 [label="entropy = 0.732\nsamples = 5913\nvalue = [1214, 4699]\nclass = NO SOBREVIVE"] ;
40 -> 42 ;
43 [label="EDAD <= 46.5\nentropy = 0.549\nsamples = 11638\nvalue = [1477, 10161]\nclass = NO SOBREVIVE"] ;
35 -> 43 ;
44 [label="INMUSUPR <= 1.5\nentropy = 0.494\nsamples = 5374\nvalue = [580, 4794]\nclass = NO SOBREVIVE"] ;
43 -> 44 ;
45 [label="entropy = 0.731\nsamples = 88\nvalue = [18, 70]\nclass = NO SOBREVIVE"] ;
44 -> 45 ;
46 [label="entropy = 0.489\nsamples = 5286\nvalue = [562, 4724]\nclass = NO SOBREVIVE"] ;
44 -> 46 ;
47 [label="INMUSUPR <= 1.5\nentropy = 0.593\nsamples = 6264\nvalue = [897, 5367]\nclass = NO SOBREVIVE"] ;
43 -> 47 ;
48 [label="entropy = 0.823\nsamples = 132\nvalue = [34, 98]\nclass = NO SOBREVIVE"] ;
47 -> 48 ;
49 [label="entropy = 0.586\nsamples = 6132\nvalue = [863, 5269]\nclass = NO SOBREVIVE"] ;
47 -> 49 ;
50 [label="EDAD <= 45.5\nentropy = 0.316\nsamples = 114085\nvalue = [6518, 107567]\nclass = NO SOBREVIVE"] ;
34 -> 50 ;
51 [label="HIPERTENSION <= 1.5\nentropy = 0.251\nsamples = 55956\nvalue = [2349, 53607]\nclass = NO SOBREVIVE"] ;
50 -> 51 ;
52 [label="INMUSUPR <= 1.5\nentropy = 0.385\nsamples = 5737\nvalue = [431, 5306]\nclass = NO SOBREVIVE"] ;
51 -> 52 ;
53 [label="entropy = 0.748\nsamples = 89\nvalue = [19, 70]\nclass = NO SOBREVIVE"] ;
52 -> 53 ;
54 [label="entropy = 0.377\nsamples = 5648\nvalue = [412, 5236]\nclass = NO SOBREVIVE"] ;
52 -> 54 ;
55 [label="EDAD <= 42.5\nentropy = 0.234\nsamples = 50219\nvalue = [1918, 48301]\nclass = NO SOBREVIVE"] ;
51 -> 55 ;
56 [label="entropy = 0.213\nsamples = 25647\nvalue = [864, 24783]\nclass = NO SOBREVIVE"] ;
55 -> 56 ;
57 [label="entropy = 0.255\nsamples = 24572\nvalue = [1054, 23518]\nclass = NO SOBREVIVE"] ;
55 -> 57 ;
58 [label="EDAD <= 49.5\nentropy = 0.372\nsamples = 58129\nvalue = [4169, 53960]\nclass = NO SOBREVIVE"] ;
50 -> 58 ;
59 [label="HIPERTENSION <= 1.5\nentropy = 0.336\nsamples = 35198\nvalue = [2191, 33007]\nclass = NO SOBREVIVE"] ;
58 -> 59 ;
60 [label="entropy = 0.436\nsamples = 5273\nvalue = [474, 4799]\nclass = NO SOBREVIVE"] ;
59 -> 60 ;
61 [label="entropy = 0.317\nsamples = 29925\nvalue = [1717, 28208]\nclass = NO SOBREVIVE"] ;
59 -> 61 ;
62 [label="HIPERTENSION <= 1.5\nentropy = 0.424\nsamples = 22931\nvalue = [1978, 20953]\nclass = NO SOBREVIVE"] ;
58 -> 62 ;
63 [label="entropy = 0.495\nsamples = 4203\nvalue = [456, 3747]\nclass = NO SOBREVIVE"] ;
62 -> 63 ;
64 [label="entropy = 0.407\nsamples = 18728\nvalue = [1522, 17206]\nclass = NO SOBREVIVE"] ;
62 -> 64 ;
65 [label="DIABETES <= 1.5\nentropy = 0.072\nsamples = 478118\nvalue = [4144, 473974]\nclass = NO SOBREVIVE"] ;
1 -> 65 ;
66 [label="HIPERTENSION <= 1.5\nentropy = 0.256\nsamples = 23159\nvalue = [995, 22164]\nclass = NO SOBREVIVE"] ;
65 -> 66 ;
67 [label="EDAD <= 44.5\nentropy = 0.319\nsamples = 8619\nvalue = [499, 8120]\nclass = NO SOBREVIVE"] ;
66 -> 67 ;
68 [label="EDAD <= 1.5\nentropy = 0.282\nsamples = 3369\nvalue = [165, 3204]\nclass = NO SOBREVIVE"] ;
67 -> 68 ;
69 [label="EDAD <= 0.5\nentropy = 0.634\nsamples = 25\nvalue = [4, 21]\nclass = NO SOBREVIVE"] ;
68 -> 69 ;
70 [label="entropy = 0.544\nsamples = 24\nvalue = [3, 21]\nclass = NO SOBREVIVE"] ;
69 -> 70 ;
71 [label="entropy = 0.0\nsamples = 1\nvalue = [1, 0]\nclass = SOBREVIVE"] ;
69 -> 71 ;
72 [label="EDAD <= 21.5\nentropy = 0.278\nsamples = 3344\nvalue = [161, 3183]\nclass = NO SOBREVIVE"] ;
68 -> 72 ;
73 [label="entropy = 0.0\nsamples = 55\nvalue = [0, 55]\nclass = NO SOBREVIVE"] ;
72 -> 73 ;
74 [label="entropy = 0.282\nsamples = 3289\nvalue = [161, 3128]\nclass = NO SOBREVIVE"] ;
72 -> 74 ;
75 [label="INMUSUPR <= 1.5\nentropy = 0.342\nsamples = 5250\nvalue = [334, 4916]\nclass = NO SOBREVIVE"] ;
67 -> 75 ;
76 [label="EDAD <= 51.5\nentropy = 0.569\nsamples = 164\nvalue = [22, 142]\nclass = NO SOBREVIVE"] ;
75 -> 76 ;
77 [label="entropy = 0.605\nsamples = 142\nvalue = [21, 121]\nclass = NO SOBREVIVE"] ;
76 -> 77 ;
78 [label="entropy = 0.267\nsamples = 22\nvalue = [1, 21]\nclass = NO SOBREVIVE"] ;
76 -> 78 ;
79 [label="ASMA <= 50.0\nentropy = 0.333\nsamples = 5086\nvalue = [312, 4774]\nclass = NO SOBREVIVE"] ;
75 -> 79 ;
80 [label="entropy = 0.332\nsamples = 5083\nvalue = [311, 4772]\nclass = NO SOBREVIVE"] ;
79 -> 80 ;
81 [label="entropy = 0.918\nsamples = 3\nvalue = [1, 2]\nclass = NO SOBREVIVE"] ;
79 -> 81 ;
82 [label="EDAD <= 47.5\nentropy = 0.215\nsamples = 14540\nvalue = [496, 14044]\nclass = NO SOBREVIVE"] ;
66 -> 82 ;
83 [label="INMUSUPR <= 1.5\nentropy = 0.187\nsamples = 10174\nvalue = [291, 9883]\nclass = NO SOBREVIVE"] ;
82 -> 83 ;
84 [label="EDAD <= 3.5\nentropy = 0.341\nsamples = 236\nvalue = [15, 221]\nclass = NO SOBREVIVE"] ;
83 -> 84 ;
85 [label="entropy = 0.0\nsamples = 1\nvalue = [1, 0]\nclass = SOBREVIVE"] ;
84 -> 85 ;
86 [label="entropy = 0.326\nsamples = 235\nvalue = [14, 221]\nclass = NO SOBREVIVE"] ;
84 -> 86 ;
87 [label="EDAD <= 10.5\nentropy = 0.183\nsamples = 9938\nvalue = [276, 9662]\nclass = NO SOBREVIVE"] ;
83 -> 87 ;
88 [label="entropy = 0.0\nsamples = 57\nvalue = [0, 57]\nclass = NO SOBREVIVE"] ;
87 -> 88 ;
89 [label="entropy = 0.184\nsamples = 9881\nvalue = [276, 9605]\nclass = NO SOBREVIVE"] ;
87 -> 89 ;
90 [label="INMUSUPR <= 1.5\nentropy = 0.273\nsamples = 4366\nvalue = [205, 4161]\nclass = NO SOBREVIVE"] ;
82 -> 90 ;
91 [label="ASMA <= 1.5\nentropy = 0.529\nsamples = 100\nvalue = [12, 88]\nclass = NO SOBREVIVE"] ;
90 -> 91 ;
92 [label="entropy = 0.0\nsamples = 9\nvalue = [0, 9]\nclass = NO SOBREVIVE"] ;
91 -> 92 ;
93 [label="entropy = 0.563\nsamples = 91\nvalue = [12, 79]\nclass = NO SOBREVIVE"] ;
91 -> 93 ;
94 [label="ASMA <= 1.5\nentropy = 0.266\nsamples = 4266\nvalue = [193, 4073]\nclass = NO SOBREVIVE"] ;
90 -> 94 ;
95 [label="entropy = 0.15\nsamples = 139\nvalue = [3, 136]\nclass = NO SOBREVIVE"] ;
94 -> 95 ;
96 [label="entropy = 0.269\nsamples = 4127\nvalue = [190, 3937]\nclass = NO SOBREVIVE"] ;
94 -> 96 ;
97 [label="INMUSUPR <= 1.5\nentropy = 0.06\nsamples = 454959\nvalue = [3149, 451810]\nclass = NO SOBREVIVE"] ;
65 -> 97 ;
98 [label="RESULTADO <= 2.5\nentropy = 0.328\nsamples = 4942\nvalue = [297, 4645]\nclass = NO SOBREVIVE"] ;
97 -> 98 ;
99 [label="EDAD <= 2.5\nentropy = 0.344\nsamples = 4458\nvalue = [286, 4172]\nclass = NO SOBREVIVE"] ;
98 -> 99 ;
100 [label="EPOC <= 1.5\nentropy = 0.516\nsamples = 225\nvalue = [26, 199]\nclass = NO SOBREVIVE"] ;
99 -> 100 ;
101 [label="entropy = 0.918\nsamples = 3\nvalue = [1, 2]\nclass = NO SOBREVIVE"] ;
100 -> 101 ;
102 [label="entropy = 0.508\nsamples = 222\nvalue = [25, 197]\nclass = NO SOBREVIVE"] ;
100 -> 102 ;
103 [label="EDAD <= 9.5\nentropy = 0.333\nsamples = 4233\nvalue = [260, 3973]\nclass = NO SOBREVIVE"] ;
99 -> 103 ;
104 [label="entropy = 0.178\nsamples = 411\nvalue = [11, 400]\nclass = NO SOBREVIVE"] ;
103 -> 104 ;
105 [label="entropy = 0.348\nsamples = 3822\nvalue = [249, 3573]\nclass = NO SOBREVIVE"] ;
103 -> 105 ;
106 [label="EDAD <= 20.5\nentropy = 0.156\nsamples = 484\nvalue = [11, 473]\nclass = NO SOBREVIVE"] ;
98 -> 106 ;
107 [label="entropy = 0.0\nsamples = 146\nvalue = [0, 146]\nclass = NO SOBREVIVE"] ;
106 -> 107 ;
108 [label="EDAD <= 22.5\nentropy = 0.207\nsamples = 338\nvalue = [11, 327]\nclass = NO SOBREVIVE"] ;
106 -> 108 ;
109 [label="entropy = 0.65\nsamples = 12\nvalue = [2, 10]\nclass = NO SOBREVIVE"] ;
108 -> 109 ;
110 [label="entropy = 0.182\nsamples = 326\nvalue = [9, 317]\nclass = NO SOBREVIVE"] ;
108 -> 110 ;
111 [label="EDAD <= 41.5\nentropy = 0.055\nsamples = 450017\nvalue = [2852, 447165]\nclass = NO SOBREVIVE"] ;
97 -> 111 ;
112 [label="EDAD <= 2.5\nentropy = 0.042\nsamples = 331955\nvalue = [1520, 330435]\nclass = NO SOBREVIVE"] ;
111 -> 112 ;
113 [label="INMUSUPR <= 50.0\nentropy = 0.195\nsamples = 7664\nvalue = [231, 7433]\nclass = NO SOBREVIVE"] ;
112 -> 113 ;
114 [label="entropy = 0.19\nsamples = 7630\nvalue = [222, 7408]\nclass = NO SOBREVIVE"] ;
113 -> 114 ;
115 [label="entropy = 0.834\nsamples = 34\nvalue = [9, 25]\nclass = NO SOBREVIVE"] ;
113 -> 115 ;
116 [label="HIPERTENSION <= 1.5\nentropy = 0.037\nsamples = 324291\nvalue = [1289, 323002]\nclass = NO SOBREVIVE"] ;
112 -> 116 ;
117 [label="entropy = 0.107\nsamples = 10562\nvalue = [149, 10413]\nclass = NO SOBREVIVE"] ;
116 -> 117 ;
118 [label="entropy = 0.035\nsamples = 313729\nvalue = [1140, 312589]\nclass = NO SOBREVIVE"] ;
116 -> 118 ;
119 [label="HIPERTENSION <= 1.5\nentropy = 0.089\nsamples = 118062\nvalue = [1332, 116730]\nclass = NO SOBREVIVE"] ;
111 -> 119 ;
120 [label="EDAD <= 46.5\nentropy = 0.141\nsamples = 14134\nvalue = [281, 13853]\nclass = NO SOBREVIVE"] ;
119 -> 120 ;
121 [label="entropy = 0.109\nsamples = 5875\nvalue = [85, 5790]\nclass = NO SOBREVIVE"] ;
120 -> 121 ;
122 [label="entropy = 0.162\nsamples = 8259\nvalue = [196, 8063]\nclass = NO SOBREVIVE"] ;
120 -> 122 ;
123 [label="EDAD <= 47.5\nentropy = 0.082\nsamples = 103928\nvalue = [1051, 102877]\nclass = NO SOBREVIVE"] ;
119 -> 123 ;
124 [label="entropy = 0.068\nsamples = 63107\nvalue = [508, 62599]\nclass = NO SOBREVIVE"] ;
123 -> 124 ;
125 [label="entropy = 0.102\nsamples = 40821\nvalue = [543, 40278]\nclass = NO SOBREVIVE"] ;
123 -> 125 ;
126 [label="RESULTADO <= 1.5\nentropy = 0.669\nsamples = 285827\nvalue = [50081, 235746]\nclass = NO SOBREVIVE"] ;
0 -> 126 [labeldistance=2.5, labelangle=-45, headlabel="False"] ;
127 [label="EDAD <= 63.5\nentropy = 0.824\nsamples = 152528\nvalue = [39358, 113170]\nclass = NO SOBREVIVE"] ;
126 -> 127 ;
128 [label="DIABETES <= 1.5\nentropy = 0.674\nsamples = 82934\nvalue = [14705, 68229]\nclass = NO SOBREVIVE"] ;
127 -> 128 ;
129 [label="EDAD <= 58.5\nentropy = 0.812\nsamples = 24446\nvalue = [6115, 18331]\nclass = NO SOBREVIVE"] ;
128 -> 129 ;
130 [label="HIPERTENSION <= 1.5\nentropy = 0.77\nsamples = 13372\nvalue = [3017, 10355]\nclass = NO SOBREVIVE"] ;
129 -> 130 ;
131 [label="EPOC <= 1.5\nentropy = 0.81\nsamples = 7034\nvalue = [1754, 5280]\nclass = NO SOBREVIVE"] ;
130 -> 131 ;
132 [label="entropy = 0.935\nsamples = 188\nvalue = [66, 122]\nclass = NO SOBREVIVE"] ;
131 -> 132 ;
133 [label="entropy = 0.806\nsamples = 6846\nvalue = [1688, 5158]\nclass = NO SOBREVIVE"] ;
131 -> 133 ;
134 [label="INMUSUPR <= 1.5\nentropy = 0.72\nsamples = 6338\nvalue = [1263, 5075]\nclass = NO SOBREVIVE"] ;
130 -> 134 ;
135 [label="entropy = 0.918\nsamples = 132\nvalue = [44, 88]\nclass = NO SOBREVIVE"] ;
134 -> 135 ;
136 [label="entropy = 0.715\nsamples = 6206\nvalue = [1219, 4987]\nclass = NO SOBREVIVE"] ;
134 -> 136 ;
137 [label="HIPERTENSION <= 1.5\nentropy = 0.855\nsamples = 11074\nvalue = [3098, 7976]\nclass = NO SOBREVIVE"] ;
129 -> 137 ;
138 [label="EPOC <= 1.5\nentropy = 0.87\nsamples = 6530\nvalue = [1899, 4631]\nclass = NO SOBREVIVE"] ;
137 -> 138 ;
139 [label="entropy = 0.949\nsamples = 258\nvalue = [95, 163]\nclass = NO SOBREVIVE"] ;
138 -> 139 ;
140 [label="entropy = 0.866\nsamples = 6272\nvalue = [1804, 4468]\nclass = NO SOBREVIVE"] ;
138 -> 140 ;
141 [label="EDAD <= 59.5\nentropy = 0.833\nsamples = 4544\nvalue = [1199, 3345]\nclass = NO SOBREVIVE"] ;
137 -> 141 ;
142 [label="entropy = 0.771\nsamples = 1017\nvalue = [230, 787]\nclass = NO SOBREVIVE"] ;
141 -> 142 ;
143 [label="entropy = 0.848\nsamples = 3527\nvalue = [969, 2558]\nclass = NO SOBREVIVE"] ;
141 -> 143 ;
144 [label="EDAD <= 59.5\nentropy = 0.602\nsamples = 58488\nvalue = [8590, 49898]\nclass = NO SOBREVIVE"] ;
128 -> 144 ;
145 [label="HIPERTENSION <= 1.5\nentropy = 0.551\nsamples = 41789\nvalue = [5330, 36459]\nclass = NO SOBREVIVE"] ;
144 -> 145 ;
146 [label="EDAD <= 56.5\nentropy = 0.635\nsamples = 9682\nvalue = [1551, 8131]\nclass = NO SOBREVIVE"] ;
145 -> 146 ;
147 [label="entropy = 0.595\nsamples = 5668\nvalue = [818, 4850]\nclass = NO SOBREVIVE"] ;
146 -> 147 ;
148 [label="entropy = 0.686\nsamples = 4014\nvalue = [733, 3281]\nclass = NO SOBREVIVE"] ;
146 -> 148 ;
149 [label="EDAD <= 55.5\nentropy = 0.523\nsamples = 32107\nvalue = [3779, 28328]\nclass = NO SOBREVIVE"] ;
145 -> 149 ;
150 [label="entropy = 0.472\nsamples = 15329\nvalue = [1547, 13782]\nclass = NO SOBREVIVE"] ;
149 -> 150 ;
151 [label="entropy = 0.566\nsamples = 16778\nvalue = [2232, 14546]\nclass = NO SOBREVIVE"] ;
149 -> 151 ;
152 [label="HIPERTENSION <= 1.5\nentropy = 0.712\nsamples = 16699\nvalue = [3260, 13439]\nclass = NO SOBREVIVE"] ;
144 -> 152 ;
153 [label="EDAD <= 61.5\nentropy = 0.765\nsamples = 4815\nvalue = [1071, 3744]\nclass = NO SOBREVIVE"] ;
152 -> 153 ;
154 [label="entropy = 0.722\nsamples = 2537\nvalue = [508, 2029]\nclass = NO SOBREVIVE"] ;
153 -> 154 ;
155 [label="entropy = 0.807\nsamples = 2278\nvalue = [563, 1715]\nclass = NO SOBREVIVE"] ;
153 -> 155 ;
156 [label="EDAD <= 60.5\nentropy = 0.689\nsamples = 11884\nvalue = [2189, 9695]\nclass = NO SOBREVIVE"] ;
152 -> 156 ;
157 [label="entropy = 0.641\nsamples = 3499\nvalue = [570, 2929]\nclass = NO SOBREVIVE"] ;
156 -> 157 ;
158 [label="entropy = 0.708\nsamples = 8385\nvalue = [1619, 6766]\nclass = NO SOBREVIVE"] ;
156 -> 158 ;
159 [label="EDAD <= 70.5\nentropy = 0.938\nsamples = 69594\nvalue = [24653, 44941]\nclass = NO SOBREVIVE"] ;
127 -> 159 ;
160 [label="DIABETES <= 1.5\nentropy = 0.884\nsamples = 32769\nvalue = [9895, 22874]\nclass = NO SOBREVIVE"] ;
159 -> 160 ;
161 [label="INMUSUPR <= 1.5\nentropy = 0.938\nsamples = 12448\nvalue = [4407, 8041]\nclass = NO SOBREVIVE"] ;
160 -> 161 ;
162 [label="EDAD <= 65.5\nentropy = 0.996\nsamples = 333\nvalue = [154, 179]\nclass = NO SOBREVIVE"] ;
161 -> 162 ;
163 [label="entropy = 0.931\nsamples = 104\nvalue = [36, 68]\nclass = NO SOBREVIVE"] ;
162 -> 163 ;
164 [label="entropy = 0.999\nsamples = 229\nvalue = [118, 111]\nclass = SOBREVIVE"] ;
162 -> 164 ;
165 [label="EDAD <= 68.5\nentropy = 0.935\nsamples = 12115\nvalue = [4253, 7862]\nclass = NO SOBREVIVE"] ;
161 -> 165 ;
166 [label="entropy = 0.926\nsamples = 9050\nvalue = [3091, 5959]\nclass = NO SOBREVIVE"] ;
165 -> 166 ;
167 [label="entropy = 0.957\nsamples = 3065\nvalue = [1162, 1903]\nclass = NO SOBREVIVE"] ;
165 -> 167 ;
168 [label="EDAD <= 66.5\nentropy = 0.842\nsamples = 20321\nvalue = [5488, 14833]\nclass = NO SOBREVIVE"] ;
160 -> 168 ;
169 [label="HIPERTENSION <= 50.0\nentropy = 0.804\nsamples = 9893\nvalue = [2427, 7466]\nclass = NO SOBREVIVE"] ;
168 -> 169 ;
170 [label="entropy = 0.802\nsamples = 9839\nvalue = [2404, 7435]\nclass = NO SOBREVIVE"] ;
169 -> 170 ;
171 [label="entropy = 0.984\nsamples = 54\nvalue = [23, 31]\nclass = NO SOBREVIVE"] ;
169 -> 171 ;
172 [label="EPOC <= 1.5\nentropy = 0.873\nsamples = 10428\nvalue = [3061, 7367]\nclass = NO SOBREVIVE"] ;
168 -> 172 ;
173 [label="entropy = 0.966\nsamples = 411\nvalue = [161, 250]\nclass = NO SOBREVIVE"] ;
172 -> 173 ;
174 [label="entropy = 0.868\nsamples = 10017\nvalue = [2900, 7117]\nclass = NO SOBREVIVE"] ;
172 -> 174 ;
175 [label="EDAD <= 77.5\nentropy = 0.971\nsamples = 36825\nvalue = [14758, 22067]\nclass = NO SOBREVIVE"] ;
159 -> 175 ;
176 [label="DIABETES <= 1.5\nentropy = 0.956\nsamples = 20236\nvalue = [7632, 12604]\nclass = NO SOBREVIVE"] ;
175 -> 176 ;
177 [label="EPOC <= 1.5\nentropy = 0.975\nsamples = 7705\nvalue = [3136, 4569]\nclass = NO SOBREVIVE"] ;
176 -> 177 ;
178 [label="entropy = 0.999\nsamples = 601\nvalue = [290, 311]\nclass = NO SOBREVIVE"] ;
177 -> 178 ;
179 [label="entropy = 0.971\nsamples = 7104\nvalue = [2846, 4258]\nclass = NO SOBREVIVE"] ;
177 -> 179 ;
180 [label="EDAD <= 73.5\nentropy = 0.942\nsamples = 12531\nvalue = [4496, 8035]\nclass = NO SOBREVIVE"] ;
176 -> 180 ;
181 [label="entropy = 0.927\nsamples = 6056\nvalue = [2075, 3981]\nclass = NO SOBREVIVE"] ;
180 -> 181 ;
182 [label="entropy = 0.954\nsamples = 6475\nvalue = [2421, 4054]\nclass = NO SOBREVIVE"] ;
180 -> 182 ;
183 [label="DIABETES <= 1.5\nentropy = 0.986\nsamples = 16589\nvalue = [7126, 9463]\nclass = NO SOBREVIVE"] ;
175 -> 183 ;
184 [label="EDAD <= 100.5\nentropy = 0.996\nsamples = 5305\nvalue = [2457, 2848]\nclass = NO SOBREVIVE"] ;
183 -> 184 ;
185 [label="entropy = 0.996\nsamples = 5299\nvalue = [2457, 2842]\nclass = NO SOBREVIVE"] ;
184 -> 185 ;
186 [label="entropy = 0.0\nsamples = 6\nvalue = [0, 6]\nclass = NO SOBREVIVE"] ;
184 -> 186 ;
187 [label="HIPERTENSION <= 1.5\nentropy = 0.978\nsamples = 11284\nvalue = [4669, 6615]\nclass = NO SOBREVIVE"] ;
183 -> 187 ;
188 [label="entropy = 0.987\nsamples = 5022\nvalue = [2179, 2843]\nclass = NO SOBREVIVE"] ;
187 -> 188 ;
189 [label="entropy = 0.97\nsamples = 6262\nvalue = [2490, 3772]\nclass = NO SOBREVIVE"] ;
187 -> 189 ;
190 [label="EDAD <= 64.5\nentropy = 0.404\nsamples = 133299\nvalue = [10723, 122576]\nclass = NO SOBREVIVE"] ;
126 -> 190 ;
191 [label="DIABETES <= 1.5\nentropy = 0.273\nsamples = 83021\nvalue = [3892, 79129]\nclass = NO SOBREVIVE"] ;
190 -> 191 ;
192 [label="EDAD <= 60.5\nentropy = 0.426\nsamples = 19157\nvalue = [1662, 17495]\nclass = NO SOBREVIVE"] ;
191 -> 192 ;
193 [label="HIPERTENSION <= 1.5\nentropy = 0.387\nsamples = 13317\nvalue = [1007, 12310]\nclass = NO SOBREVIVE"] ;
192 -> 193 ;
194 [label="INMUSUPR <= 1.5\nentropy = 0.419\nsamples = 7160\nvalue = [608, 6552]\nclass = NO SOBREVIVE"] ;
193 -> 194 ;
195 [label="entropy = 0.596\nsamples = 256\nvalue = [37, 219]\nclass = NO SOBREVIVE"] ;
194 -> 195 ;
196 [label="entropy = 0.412\nsamples = 6904\nvalue = [571, 6333]\nclass = NO SOBREVIVE"] ;
194 -> 196 ;
197 [label="EPOC <= 1.5\nentropy = 0.346\nsamples = 6157\nvalue = [399, 5758]\nclass = NO SOBREVIVE"] ;
193 -> 197 ;
198 [label="entropy = 0.546\nsamples = 151\nvalue = [19, 132]\nclass = NO SOBREVIVE"] ;
197 -> 198 ;
199 [label="entropy = 0.34\nsamples = 6006\nvalue = [380, 5626]\nclass = NO SOBREVIVE"] ;
197 -> 199 ;
200 [label="HIPERTENSION <= 1.5\nentropy = 0.506\nsamples = 5840\nvalue = [655, 5185]\nclass = NO SOBREVIVE"] ;
192 -> 200 ;
201 [label="ASMA <= 50.0\nentropy = 0.538\nsamples = 3567\nvalue = [439, 3128]\nclass = NO SOBREVIVE"] ;
200 -> 201 ;
202 [label="entropy = 0.537\nsamples = 3566\nvalue = [438, 3128]\nclass = NO SOBREVIVE"] ;
201 -> 202 ;
203 [label="entropy = 0.0\nsamples = 1\nvalue = [1, 0]\nclass = SOBREVIVE"] ;
201 -> 203 ;
204 [label="EDAD <= 63.5\nentropy = 0.453\nsamples = 2273\nvalue = [216, 2057]\nclass = NO SOBREVIVE"] ;
200 -> 204 ;
205 [label="entropy = 0.431\nsamples = 1789\nvalue = [158, 1631]\nclass = NO SOBREVIVE"] ;
204 -> 205 ;
206 [label="entropy = 0.529\nsamples = 484\nvalue = [58, 426]\nclass = NO SOBREVIVE"] ;
204 -> 206 ;
207 [label="EDAD <= 58.5\nentropy = 0.218\nsamples = 63864\nvalue = [2230, 61634]\nclass = NO SOBREVIVE"] ;
191 -> 207 ;
208 [label="INMUSUPR <= 1.5\nentropy = 0.175\nsamples = 39790\nvalue = [1043, 38747]\nclass = NO SOBREVIVE"] ;
207 -> 208 ;
209 [label="DIABETES <= 50.0\nentropy = 0.436\nsamples = 579\nvalue = [52, 527]\nclass = NO SOBREVIVE"] ;
208 -> 209 ;
210 [label="entropy = 0.431\nsamples = 578\nvalue = [51, 527]\nclass = NO SOBREVIVE"] ;
209 -> 210 ;
211 [label="entropy = 0.0\nsamples = 1\nvalue = [1, 0]\nclass = SOBREVIVE"] ;
209 -> 211 ;
212 [label="EDAD <= 55.5\nentropy = 0.17\nsamples = 39211\nvalue = [991, 38220]\nclass = NO SOBREVIVE"] ;
208 -> 212 ;
213 [label="entropy = 0.15\nsamples = 21458\nvalue = [461, 20997]\nclass = NO SOBREVIVE"] ;
212 -> 213 ;
214 [label="entropy = 0.194\nsamples = 17753\nvalue = [530, 17223]\nclass = NO SOBREVIVE"] ;
212 -> 214 ;
215 [label="INMUSUPR <= 1.5\nentropy = 0.283\nsamples = 24074\nvalue = [1187, 22887]\nclass = NO SOBREVIVE"] ;
207 -> 215 ;
216 [label="EDAD <= 61.5\nentropy = 0.5\nsamples = 481\nvalue = [53, 428]\nclass = NO SOBREVIVE"] ;
215 -> 216 ;
217 [label="entropy = 0.406\nsamples = 247\nvalue = [20, 227]\nclass = NO SOBREVIVE"] ;
216 -> 217 ;
218 [label="entropy = 0.587\nsamples = 234\nvalue = [33, 201]\nclass = NO SOBREVIVE"] ;
216 -> 218 ;
219 [label="EPOC <= 1.5\nentropy = 0.278\nsamples = 23593\nvalue = [1134, 22459]\nclass = NO SOBREVIVE"] ;
215 -> 219 ;
220 [label="entropy = 0.455\nsamples = 523\nvalue = [50, 473]\nclass = NO SOBREVIVE"] ;
219 -> 220 ;
221 [label="entropy = 0.273\nsamples = 23070\nvalue = [1084, 21986]\nclass = NO SOBREVIVE"] ;
219 -> 221 ;
222 [label="EDAD <= 73.5\nentropy = 0.573\nsamples = 50278\nvalue = [6831, 43447]\nclass = NO SOBREVIVE"] ;
190 -> 222 ;
223 [label="DIABETES <= 1.5\nentropy = 0.503\nsamples = 28029\nvalue = [3108, 24921]\nclass = NO SOBREVIVE"] ;
222 -> 223 ;
224 [label="HIPERTENSION <= 1.5\nentropy = 0.589\nsamples = 9634\nvalue = [1367, 8267]\nclass = NO SOBREVIVE"] ;
223 -> 224 ;
225 [label="RESULTADO <= 2.5\nentropy = 0.615\nsamples = 6528\nvalue = [994, 5534]\nclass = NO SOBREVIVE"] ;
224 -> 225 ;
226 [label="entropy = 0.629\nsamples = 5355\nvalue = [845, 4510]\nclass = NO SOBREVIVE"] ;
225 -> 226 ;
227 [label="entropy = 0.549\nsamples = 1173\nvalue = [149, 1024]\nclass = NO SOBREVIVE"] ;
225 -> 227 ;
228 [label="EPOC <= 1.5\nentropy = 0.53\nsamples = 3106\nvalue = [373, 2733]\nclass = NO SOBREVIVE"] ;
224 -> 228 ;
229 [label="entropy = 0.811\nsamples = 200\nvalue = [50, 150]\nclass = NO SOBREVIVE"] ;
228 -> 229 ;
230 [label="entropy = 0.503\nsamples = 2906\nvalue = [323, 2583]\nclass = NO SOBREVIVE"] ;
228 -> 230 ;
231 [label="EDAD <= 67.5\nentropy = 0.452\nsamples = 18395\nvalue = [1741, 16654]\nclass = NO SOBREVIVE"] ;
223 -> 231 ;
232 [label="INMUSUPR <= 1.5\nentropy = 0.39\nsamples = 7782\nvalue = [597, 7185]\nclass = NO SOBREVIVE"] ;
231 -> 232 ;
233 [label="entropy = 0.615\nsamples = 230\nvalue = [35, 195]\nclass = NO SOBREVIVE"] ;
232 -> 233 ;
234 [label="entropy = 0.382\nsamples = 7552\nvalue = [562, 6990]\nclass = NO SOBREVIVE"] ;
232 -> 234 ;
235 [label="HIPERTENSION <= 1.5\nentropy = 0.493\nsamples = 10613\nvalue = [1144, 9469]\nclass = NO SOBREVIVE"] ;
231 -> 235 ;
236 [label="entropy = 0.542\nsamples = 3688\nvalue = [459, 3229]\nclass = NO SOBREVIVE"] ;
235 -> 236 ;
237 [label="entropy = 0.466\nsamples = 6925\nvalue = [685, 6240]\nclass = NO SOBREVIVE"] ;
235 -> 237 ;
238 [label="DIABETES <= 1.5\nentropy = 0.652\nsamples = 22249\nvalue = [3723, 18526]\nclass = NO SOBREVIVE"] ;
222 -> 238 ;
239 [label="RESULTADO <= 2.5\nentropy = 0.719\nsamples = 7250\nvalue = [1439, 5811]\nclass = NO SOBREVIVE"] ;
238 -> 239 ;
240 [label="EDAD <= 77.5\nentropy = 0.733\nsamples = 5903\nvalue = [1214, 4689]\nclass = NO SOBREVIVE"] ;
239 -> 240 ;
241 [label="entropy = 0.693\nsamples = 2309\nvalue = [429, 1880]\nclass = NO SOBREVIVE"] ;
240 -> 241 ;
242 [label="entropy = 0.757\nsamples = 3594\nvalue = [785, 2809]\nclass = NO SOBREVIVE"] ;
240 -> 242 ;
243 [label="EDAD <= 90.5\nentropy = 0.651\nsamples = 1347\nvalue = [225, 1122]\nclass = NO SOBREVIVE"] ;
239 -> 243 ;
244 [label="entropy = 0.661\nsamples = 1296\nvalue = [222, 1074]\nclass = NO SOBREVIVE"] ;
243 -> 244 ;
245 [label="entropy = 0.323\nsamples = 51\nvalue = [3, 48]\nclass = NO SOBREVIVE"] ;
243 -> 245 ;
246 [label="EDAD <= 79.5\nentropy = 0.616\nsamples = 14999\nvalue = [2284, 12715]\nclass = NO SOBREVIVE"] ;
238 -> 246 ;
247 [label="INMUSUPR <= 1.5\nentropy = 0.58\nsamples = 7058\nvalue = [977, 6081]\nclass = NO SOBREVIVE"] ;
246 -> 247 ;
248 [label="entropy = 0.73\nsamples = 201\nvalue = [41, 160]\nclass = NO SOBREVIVE"] ;
247 -> 248 ;
249 [label="entropy = 0.575\nsamples = 6857\nvalue = [936, 5921]\nclass = NO SOBREVIVE"] ;
247 -> 249 ;
250 [label="EDAD <= 100.5\nentropy = 0.645\nsamples = 7941\nvalue = [1307, 6634]\nclass = NO SOBREVIVE"] ;
246 -> 250 ;
251 [label="entropy = 0.649\nsamples = 7838\nvalue = [1304, 6534]\nclass = NO SOBREVIVE"] ;
250 -> 251 ;
252 [label="entropy = 0.19\nsamples = 103\nvalue = [3, 100]\nclass = NO SOBREVIVE"] ;
250 -> 252 ;
}